digraph Tree {
node [shape=box, fontname="helvetica"] ;
edge [fontname="helvetica"] ;
0 [label="纹理=清晰 <= 0.5\ngini = 0.498\nsamples = 17\nvalue = [9, 8]\nclass = 不是好瓜"] ;
1 [label="触感=硬滑 <= 0.5\ngini = 0.219\nsamples = 8\nvalue = [7, 1]\nclass = 不是好瓜"] ;
0 -> 1 [labeldistance=2.5, labelangle=45, headlabel="True"] ;
2 [label="密度 <= 0.412\ngini = 0.5\nsamples = 2\nvalue = [1, 1]\nclass = 不是好瓜"] ;
1 -> 2 ;
3 [label="gini = 0.0\nsamples = 1\nvalue = [1, 0]\nclass = 不是好瓜"] ;
2 -> 3 ;
4 [label="gini = 0.0\nsamples = 1\nvalue = [0, 1]\nclass = 是好瓜"] ;
2 -> 4 ;
5 [label="gini = 0.0\nsamples = 6\nvalue = [6, 0]\nclass = 不是好瓜"] ;
1 -> 5 ;
6 [label="密度 <= 0.382\ngini = 0.346\nsamples = 9\nvalue = [2, 7]\nclass = 是好瓜"] ;
0 -> 6 [labeldistance=2.5, labelangle=-45, headlabel="False"] ;
7 [label="gini = 0.0\nsamples = 2\nvalue = [2, 0]\nclass = 不是好瓜"] ;
6 -> 7 ;
8 [label="gini = 0.0\nsamples = 7\nvalue = [0, 7]\nclass = 是好瓜"] ;
6 -> 8 ;
}